<?xml version="1.0"?>
<opencv_storage>
<cascade>
  <stageType>BOOST</stageType>
  <featureType>HAAR</featureType>
  <height>24</height>
  <width>24</width>
  <stageParams>
    <boostType>GAB</boostType>
    <minHitRate>9.9500000476837158e-01</minHitRate>
    <maxFalseAlarm>5.0000000000000000e-01</maxFalseAlarm>
    <weightTrimRate>9.4999998807907104e-01</weightTrimRate>
    <maxDepth>1</maxDepth>
    <maxWeakCount>100</maxWeakCount></stageParams>
  <featureParams>
    <maxCatCount>0</maxCatCount>
    <featSize>1</featSize>
    <mode>BASIC</mode></featureParams>
  <stageNum>15</stageNum>
  <stages>
    <!-- stage 0 -->
    <_>
      <maxWeakCount>13</maxWeakCount>
      <stageThreshold>-1.3142217397689819e+00</stageThreshold>
      <weakClassifiers>
        <_>
          <internalNodes>
            0 -1 278 1.0533218830823898e-01</internalNodes>
          <leafValues>
            -9.9153570830821991e-02 7.1778142452239990e-01</leafValues></_>
        <_>
          <internalNodes>
            0 -1 339 -3.4537368919700384e-03</internalNodes>
          <leafValues>
            6.7497521638870239e-01 -2.2229614853858948e-01</leafValues></_>
        <_>
          <internalNodes>
            0 -1 59 -1.3519045896828175e-02</internalNodes>
          <leafValues>
            6.4366918802261353e-01 -2.3020860552787781e-01</leafValues></_>
        <_>
          <internalNodes>
            0 -1 729 -2.5166086852550507e-03</internalNodes>
          <leafValues>
            6.0779225826263428e-01 -2.4161103367805481e-01</leafValues></_>
        <_>
          <internalNodes>
            0 -1 715 4.9568498507142067e-03</internalNodes>
          <leafValues>
            -1.5991519391536713e-01 7.3573660850524902e-01</leafValues></_>
        <_>
          <internalNodes>
            0 -1 96 9.6935648471117020e-03</internalNodes>
          <leafValues>
            -1.6618479788303375e-01 6.6974896192550659e-01</leafValues></_>
        <_>
          <internalNodes>
            0 -1 202 -4.9158036708831787e-03</internalNodes>
          <leafValues>
            6.5974044799804688e-01 -1.4431317150592804e-01</leafValues></_>
        <_>
          <internalNodes>
            0 -1 203 4.1962247341871262e-03</internalNodes>
          <leafValues>
            -1.8902446329593658e-01 5.5339068174362183e-01</leafValues></_>
        <_>
          <internalNodes>
            0 -1 664 -2.2038258612155914e-02</internalNodes>
          <leafValues>
            5.5807566642761230e-01 -1.6028673946857452e-01</leafValues></_>
        <_>
          <internalNodes>
            0 -1 153 6.0679740272462368e-04</internalNodes>
          <leafValues>
            -1.5611083805561066e-01 5.6610649824142456e-01</leafValues></_>
        <_>
          <internalNodes>
            0 -1 705 2.9834059532731771e-03</internalNodes>
          <leafValues>
            -1.3939771056175232e-01 5.6885349750518799e-01</leafValues></_>
        <_>
          <internalNodes>
            0 -1 227 -6.6030658781528473e-03</internalNodes>
          <leafValues>
            5.3292161226272583e-01 -1.5728950500488281e-01</leafValues></_>
        <_>
          <internalNodes>
            0 -1 469 -1.9332105293869972e-02</internalNodes>
          <leafValues>
            5.7569187879562378e-01 -1.2230776250362396e-01</leafValues></_></weakClassifiers></_>
    <!-- stage 1 -->
    <_>
      <maxWeakCount>29</maxWeakCount>
      <stageThreshold>-1.0567036867141724e+00</stageThreshold>
      <weakClassifiers>
        <_>
          <internalNodes>
            0 -1 277 1.2356032431125641e-01</internalNodes>
          <leafValues>
            -3.9907459169626236e-02 6.8201565742492676e-01</leafValues></_>
        <_>
          <internalNodes>
            0 -1 560 -1.1487483978271484e-02</internalNodes>
          <leafValues>
            4.8477914929389954e-01 -2.2063842415809631e-01</leafValues></_>
        <_>
          <internalNodes>
            0 -1 656 -2.2227685898542404e-02</internalNodes>
          <leafValues>
            5.0736099481582642e-01 -1.6743980348110199e-01</leafValues></_>
        <_>
          <internalNodes>
            0 -1 51 -1.6029192134737968e-02</internalNodes>
          <leafValues>
            4.2613369226455688e-01 -1.9741913676261902e-01</leafValues></_>
        <_>
          <internalNodes>
            0 -1 58 1.8778350204229355e-02</internalNodes>
          <leafValues>
            -1.7731554806232452e-01 5.5083215236663818e-01</leafValues></_>
        <_>
          <internalNodes>
            0 -1 665 1.0458089411258698e-02</internalNodes>
          <leafValues>
            -1.6560268402099609e-01 4.1602542996406555e-01</leafValues></_>
        <_>
          <internalNodes>
            0 -1 39 -7.0419898256659508e-03</internalNodes>
          <leafValues>
            4.2189061641693115e-01 -1.2790861725807190e-01</leafValues></_>
        <_>
          <internalNodes>
            0 -1 490 3.5953540354967117e-03</internalNodes>
          <leafValues>
            -1.1556927859783173e-01 4.5651215314865112e-01</leafValues></_>
        <_>
          <internalNodes>
            0 -1 318 5.1675606518983841e-03</internalNodes>
          <leafValues>
            -1.4730361104011536e-01 4.0325260162353516e-01</leafValues></_>
        <_>
          <internalNodes>
            0 -1 38 5.9516448527574539e-03</internalNodes>
          <leafValues>
            -1.0790052264928818e-01 4.5073303580284119e-01</leafValues></_>
        <_>
          <internalNodes>
            0 -1 354 -4.8137689009308815e-03</internalNodes>
          <leafValues>
            2.7776685357093811e-01 -2.0479553937911987e-01</leafValues></_>
        <_>
          <internalNodes>
            0 -1 261 -4.2410083115100861e-02</internalNodes>
          <leafValues>
            3.9916342496871948e-01 -1.1460753530263901e-01</leafValues></_>
        <_>
          <internalNodes>
            0 -1 572 -3.0917981639504433e-03</internalNodes>
          <leafValues>
            3.7931358814239502e-01 -1.2904870510101318e-01</leafValues></_>
        <_>
          <internalNodes>
            0 -1 766 4.4790431857109070e-03</internalNodes>
          <leafValues>
            -9.7150564193725586e-02 5.0897997617721558e-01</leafValues></_>
        <_>
          <internalNodes>
            0 -1 529 1.2163583887740970e-03</internalNodes>
          <leafValues>
            9.7460038959980011e-02 -5.4195022583007813e-01</leafValues></_>
        <_>
          <internalNodes>
            0 -1 666 -3.5874441266059875e-02</internalNodes>
          <leafValues>
            4.1198226809501648e-01 -1.2488305568695068e-01</leafValues></_>
        <_>
          <internalNodes>
            0 -1 418 -4.6161282807588577e-03</internalNodes>
          <leafValues>
            4.1855907440185547e-01 -1.1529495567083359e-01</leafValues></_>
        <_>
          <internalNodes>
            0 -1 674 3.7016950547695160e-02</internalNodes>
          <leafValues>
            -8.9152880012989044e-02 5.4394567012786865e-01</leafValues></_>
        <_>
          <internalNodes>
            0 -1 575 3.6707948893308640e-03</internalNodes>
          <leafValues>
            8.3533324301242828e-02 -6.0954618453979492e-01</leafValues></_>
        <_>
          <internalNodes>
            0 -1 316 1.8680207431316376e-02</internalNodes>
          <leafValues>
            -1.3122834265232086e-01 3.4781178832054138e-01</leafValues></_>
        <_>
          <internalNodes>
            0 -1 589 -4.6580829657614231e-03</internalNodes>
          <leafValues>
            -7.6797258853912354e-01 6.1513859778642654e-02</leafValues></_>
        <_>
          <internalNodes>
            0 -1 191 1.2776167131960392e-03</internalNodes>
          <leafValues>
            -1.7673574388027191e-01 2.3839266598224640e-01</leafValues></_>
        <_>
          <internalNodes>
            0 -1 409 1.0466710664331913e-03</internalNodes>
          <leafValues>
            1.2878271937370300e-01 -3.6533427238464355e-01</leafValues></_>
        <_>
          <internalNodes>
            0 -1 640 7.7960919588804245e-03</internalNodes>
          <leafValues>
            -1.1004985868930817e-01 3.5049027204513550e-01</leafValues></_>
        <_>
          <internalNodes>
            0 -1 211 3.9336793124675751e-03</internalNodes>
          <leafValues>
            -8.7567955255508423e-02 4.6546530723571777e-01</leafValues></_>
        <_>
          <internalNodes>
            0 -1 172 -9.7320452332496643e-03</internalNodes>
          <leafValues>
            4.0618190169334412e-01 -1.0032470524311066e-01</leafValues></_>
        <_>
          <internalNodes>
            0 -1 638 -9.5239086076617241e-03</internalNodes>
          <leafValues>
            3.3866852521896362e-01 -1.1549476534128189e-01</leafValues></_>
        <_>
          <internalNodes>
            0 -1 784 9.8877511918544769e-03</internalNodes>
          <leafValues>
            9.8115466535091400e-02 -4.4336125254631042e-01</leafValues></_>
        <_>
          <internalNodes>
            0 -1 600 2.3394599556922913e-03</internalNodes>
          <leafValues>
            1.0930530726909637e-01 -3.1266111135482788e-01</leafValues></_></weakClassifiers></_>
    <!-- stage 2 -->
    <_>
      <maxWeakCount>34</maxWeakCount>
      <stageThreshold>-1.1359181404113770e+00</stageThreshold>
      <weakClassifiers>
        <_>
          <internalNodes>
            0 -1 756 4.1012931615114212e-03</internalNodes>
          <leafValues>
            4.9624059349298477e-02 6.9717514514923096e-01</leafValues></_>
        <_>
          <internalNodes>
            0 -1 73 -4.6808226034045219e-03</internalNodes>
          <leafValues>
            6.2864607572555542e-01 -1.2988984584808350e-01</leafValues></_>
        <_>
          <internalNodes>
            0 -1 201 1.9706445932388306e-01</internalNodes>
          <leafValues>
            -2.2873310744762421e-01 4.7094866633415222e-01</leafValues></_>
        <_>
          <internalNodes>
            0 -1 71 2.5211558677256107e-03</internalNodes>
          <leafValues>
            -1.2759597599506378e-01 5.3585672378540039e-01</leafValues></_>
        <_>
          <internalNodes>
            0 -1 17 -9.9229812622070313e-03</internalNodes>
          <leafValues>
            4.7054255008697510e-01 -1.4489331841468811e-01</leafValues></_>
        <_>
          <internalNodes>
            0 -1 46 3.6264938116073608e-01</internalNodes>
          <leafValues>
            -1.3536313176155090e-01 5.7833570241928101e-01</leafValues></_>
        <_>
          <internalNodes>
            0 -1 735 -2.8758128173649311e-03</internalNodes>
          <leafValues>
            5.2932101488113403e-01 -1.0650309920310974e-01</leafValues></_>
        <_>
          <internalNodes>
            0 -1 730 4.3647186830639839e-03</internalNodes>
          <leafValues>
            -1.4459273219108582e-01 5.5865287780761719e-01</leafValues></_>
        <_>
          <internalNodes>
            0 -1 63 -1.4939374523237348e-03</internalNodes>
          <leafValues>
            3.7143158912658691e-01 -1.4848528802394867e-01</leafValues></_>
        <_>
          <internalNodes>
            0 -1 158 5.5011021904647350e-03</internalNodes>
          <leafValues>
            -1.2194193899631500e-01 4.4496905803680420e-01</leafValues></_>
        <_>
          <internalNodes>
            0 -1 707 -4.5435805805027485e-03</internalNodes>
          <leafValues>
            4.8456159234046936e-01 -8.8746152818202972e-02</leafValues></_>
        <_>
          <internalNodes>
            0 -1 19 3.6862436681985855e-03</internalNodes>
          <leafValues>
            -1.2431004643440247e-01 3.3749037981033325e-01</leafValues></_>
        <_>
          <internalNodes>
            0 -1 237 4.2520244605839252e-03</internalNodes>
          <leafValues>
            -1.0020885616540909e-01 4.1804617643356323e-01</leafValues></_>
        <_>
          <internalNodes>
            0 -1 698 5.4431892931461334e-03</internalNodes>
          <leafValues>
            -6.9295935332775116e-02 5.1765304803848267e-01</leafValues></_>
        <_>
          <internalNodes>
            0 -1 295 -1.9460573792457581e-02</internalNodes>
          <leafValues>
            3.3484196662902832e-01 -1.1471416801214218e-01</leafValues></_>
        <_>
          <internalNodes>
            0 -1 271 -7.2813913226127625e-02</internalNodes>
          <leafValues>
            3.2798904180526733e-01 -1.4847439527511597e-01</leafValues></_>
        <_>
          <internalNodes>
            0 -1 231 -3.3762413263320923e-01</internalNodes>
          <leafValues>
            6.1202186346054077e-01 -6.6158808767795563e-02</leafValues></_>
        <_>
          <internalNodes>
            0 -1 213 -6.3511319458484650e-03</internalNodes>
          <leafValues>
            3.1198599934577942e-01 -1.3865546882152557e-01</leafValues></_>
        <_>
          <internalNodes>
            0 -1 20 -9.6023455262184143e-03</internalNodes>
          <leafValues>
            4.2343914508819580e-01 -1.1749699711799622e-01</leafValues></_>
        <_>
          <internalNodes>
            0 -1 149 3.6784517578780651e-03</internalNodes>
          <leafValues>
            -1.0205581039190292e-01 4.4353258609771729e-01</leafValues></_>
        <_>
          <internalNodes>
            0 -1 18 1.0157609358429909e-03</internalNodes>
          <leafValues>
            1.4599278569221497e-01 -3.5571718215942383e-01</leafValues></_>
        <_>
          <internalNodes>
            0 -1 504 5.2490420639514923e-02</internalNodes>
          <leafValues>
            -1.2202153354883194e-01 4.2418196797370911e-01</leafValues></_>
        <_>
          <internalNodes>
            0 -1 189 2.2375322878360748e-02</internalNodes>
          <leafValues>
            -9.5894269645214081e-02 4.1475513577461243e-01</leafValues></_>
        <_>
          <internalNodes>
            0 -1 300 -3.3311583101749420e-02</internalNodes>
          <leafValues>
            3.2998949289321899e-01 -1.6063044965267181e-01</leafValues></_>
        <_>
          <internalNodes>
            0 -1 691 -1.2548480927944183e-01</internalNodes>
          <leafValues>
            -6.5405040979385376e-01 6.6195406019687653e-02</leafValues></_>
        <_>
          <internalNodes>
            0 -1 464 2.5524352677166462e-03</internalNodes>
          <leafValues>
            1.1213313043117523e-01 -3.4585571289062500e-01</leafValues></_>
        <_>
          <internalNodes>
            0 -1 160 -1.1054996866732836e-03</internalNodes>
          <leafValues>
            2.8896453976631165e-01 -1.2931074202060699e-01</leafValues></_>
        <_>
          <internalNodes>
            0 -1 718 1.7426912672817707e-03</internalNodes>
          <leafValues>
            9.1098465025424957e-02 -4.4557934999465942e-01</leafValues></_>
        <_>
          <internalNodes>
            0 -1 363 -8.7649784982204437e-03</internalNodes>
          <leafValues>
            3.9790806174278259e-01 -1.0442260652780533e-01</leafValues></_>
        <_>
          <internalNodes>
            0 -1 496 -1.0996374767273664e-03</internalNodes>
          <leafValues>
            2.5401699542999268e-01 -1.8096300959587097e-01</leafValues></_>
        <_>
          <internalNodes>
            0 -1 230 2.5128233432769775e-01</internalNodes>
          <leafValues>
            -6.4482241868972778e-02 5.7569390535354614e-01</leafValues></_>
        <_>
          <internalNodes>
            0 -1 281 -9.6809118986129761e-02</internalNodes>
          <leafValues>
            4.8095324635505676e-01 -8.2328833639621735e-02</leafValues></_>
        <_>
          <internalNodes>
            0 -1 716 2.1585505455732346e-03</internalNodes>
          <leafValues>
            -7.0106066763401031e-02 5.0097334384918213e-01</leafValues></_>
        <_>
          <internalNodes>
            0 -1 780 4.7790113603696227e-04</internalNodes>
          <leafValues>
            1.0557328909635544e-01 -3.8886889815330505e-01</leafValues></_></weakClassifiers></_>
    <!-- stage 3 -->
    <_>
      <maxWeakCount>37</maxWeakCount>
      <stageThreshold>-9.2680168151855469e-01</stageThreshold>
      <weakClassifiers>
        <_>
          <internalNodes>
            0 -1 681 -7.4355015531182289e-03</internalNodes>
          <leafValues>
            6.5198236703872681e-01 6.2880322337150574e-02</leafValues></_>
        <_>
          <internalNodes>
            0 -1 115 1.7990481853485107e-01</internalNodes>
          <leafValues>
            -9.9170386791229248e-02 6.0282987356185913e-01</leafValues></_>
        <_>
          <internalNodes>
            0 -1 750 8.3110388368368149e-03</internalNodes>
          <leafValues>
            -1.6367235779762268e-01 4.7177591919898987e-01</leafValues></_>
        <_>
          <internalNodes>
            0 -1 79 -4.1341213509440422e-03</internalNodes>
          <leafValues>
            5.1319032907485962e-01 -1.1575613915920258e-01</leafValues></_>
        <_>
          <internalNodes>
            0 -1 236 7.3612958192825317e-02</internalNodes>
          <leafValues>
            -1.8478314578533173e-01 3.2526662945747375e-01</leafValues></_>
        <_>
          <internalNodes>
            0 -1 743 2.4043568409979343e-03</internalNodes>
          <leafValues>
            -1.0450616478919983e-01 6.1008167266845703e-01</leafValues></_>
        <_>
          <internalNodes>
            0 -1 706 2.8632646426558495e-03</internalNodes>
          <leafValues>
            -8.7468527257442474e-02 5.9699940681457520e-01</leafValues></_>
        <_>
          <internalNodes>
            0 -1 299 1.0923010110855103e-01</internalNodes>
          <leafValues>
            -9.5849715173244476e-02 4.9226063489913940e-01</leafValues></_>
        <_>
          <internalNodes>
            0 -1 435 3.9404458366334438e-03</internalNodes>
          <leafValues>
            -1.3874442875385284e-01 3.1737679243087769e-01</leafValues></_>
        <_>
          <internalNodes>
            0 -1 43 -1.1232156306505203e-02</internalNodes>
          <leafValues>
            2.9837158322334290e-01 -1.4430403709411621e-01</leafValues></_>
        <_>
          <internalNodes>
            0 -1 50 1.0898827575147152e-02</internalNodes>
          <leafValues>
            -9.6185527741909027e-02 5.4793310165405273e-01</leafValues></_>
        <_>
          <internalNodes>
            0 -1 777 2.2754768724553287e-04</internalNodes>
          <leafValues>
            1.3841392099857330e-01 -3.1458187103271484e-01</leafValues></_>
        <_>
          <internalNodes>
            0 -1 744 -3.2632783986628056e-03</internalNodes>
          <leafValues>
            5.3117150068283081e-01 -6.8275608122348785e-02</leafValues></_>
        <_>
          <internalNodes>
            0 -1 357 -2.7322713285684586e-03</internalNodes>
          <leafValues>
            2.9213026165962219e-01 -1.4344759285449982e-01</leafValues></_>
        <_>
          <internalNodes>
            0 -1 777 -8.3702361735049635e-05</internalNodes>
          <leafValues>
            -2.2601898014545441e-01 1.5991951525211334e-01</leafValues></_>
        <_>
          <internalNodes>
            0 -1 683 3.6490454804152250e-03</internalNodes>
          <leafValues>
            7.2527326643466949e-02 -5.3803050518035889e-01</leafValues></_>
        <_>
          <internalNodes>
            0 -1 386 -4.2245052754878998e-02</internalNodes>
          <leafValues>
            -5.0040149688720703e-01 6.1136990785598755e-02</leafValues></_>
        <_>
          <internalNodes>
            0 -1 152 -5.2662692032754421e-03</internalNodes>
          <leafValues>
            2.9722923040390015e-01 -1.1766943335533142e-01</leafValues></_>
        <_>
          <internalNodes>
            0 -1 29 3.6440178751945496e-02</internalNodes>
          <leafValues>
            -8.9767061173915863e-02 3.7123605608940125e-01</leafValues></_>
        <_>
          <internalNodes>
            0 -1 54 -1.2658096849918365e-02</internalNodes>
          <leafValues>
            -3.8439843058586121e-01 9.5896139740943909e-02</leafValues></_>
        <_>
          <internalNodes>
            0 -1 347 -1.1536029726266861e-01</internalNodes>
          <leafValues>
            4.2634263634681702e-01 -9.0767845511436462e-02</leafValues></_>
        <_>
          <internalNodes>
            0 -1 676 -5.4394779726862907e-03</internalNodes>
          <leafValues>
            4.0740555524826050e-01 -7.4334695935249329e-02</leafValues></_>
        <_>
          <internalNodes>
            0 -1 327 -2.8028903529047966e-02</internalNodes>
          <leafValues>
            2.0278030633926392e-01 -1.6635078191757202e-01</leafValues></_>
        <_>
          <internalNodes>
            0 -1 463 2.1757347509264946e-02</internalNodes>
          <leafValues>
            6.8354733288288116e-02 -4.8294782638549805e-01</leafValues></_>
        <_>
          <internalNodes>
            0 -1 372 -4.5927651226520538e-03</internalNodes>
          <leafValues>
            2.8477466106414795e-01 -1.2338038533926010e-01</leafValues></_>
        <_>
          <internalNodes>
            0 -1 702 -8.0797588452696800e-03</internalNodes>
          <leafValues>
            4.4117715954780579e-01 -7.5244702398777008e-02</leafValues></_>
        <_>
          <internalNodes>
            0 -1 725 1.7463656840845942e-03</internalNodes>
          <leafValues>
            8.0530963838100433e-02 -4.6745726466178894e-01</leafValues></_>
        <_>
          <internalNodes>
            0 -1 695 7.8944219276309013e-03</internalNodes>
          <leafValues>
            -8.4221050143241882e-02 4.5689094066619873e-01</leafValues></_>
        <_>
          <internalNodes>
            0 -1 150 2.4485711473971605e-03</internalNodes>
          <leafValues>
            -6.6548764705657959e-02 4.6902281045913696e-01</leafValues></_>
        <_>
          <internalNodes>
            0 -1 436 -2.5238429661840200e-03</internalNodes>
          <leafValues>
            -5.6594169139862061e-01 6.4247883856296539e-02</leafValues></_>
        <_>
          <internalNodes>
            0 -1 368 3.3610872924327850e-02</internalNodes>
          <leafValues>
            -6.9892607629299164e-02 5.0171458721160889e-01</leafValues></_>
        <_>
          <internalNodes>
            0 -1 748 -3.0873547075316310e-04</internalNodes>
          <leafValues>
            -3.4262195229530334e-01 1.0704740136861801e-01</leafValues></_>
        <_>
          <internalNodes>
            0 -1 733 -1.6910536214709282e-03</internalNodes>
          <leafValues>
            3.1945559382438660e-01 -1.0488358885049820e-01</leafValues></_>
        <_>
          <internalNodes>
            0 -1 714 2.7383395936340094e-03</internalNodes>
          <leafValues>
            -1.0643169283866882e-01 3.3895292878150940e-01</leafValues></_>
        <_>
          <internalNodes>
            0 -1 596 1.2069790624082088e-02</internalNodes>
          <leafValues>
            -1.2489048391580582e-01 2.8155890107154846e-01</leafValues></_>
        <_>
          <internalNodes>
            0 -1 395 -8.5503458976745605e-02</internalNodes>
          <leafValues>
            -7.5423467159271240e-01 4.4838365167379379e-02</leafValues></_>
        <_>
          <internalNodes>
            0 -1 746 -1.4522261335514486e-04</internalNodes>
          <leafValues>
            -2.5793352723121643e-01 1.2920321524143219e-01</leafValues></_></weakClassifiers></_>
    <!-- stage 4 -->
    <_>
      <maxWeakCount>43</maxWeakCount>
      <stageThreshold>-7.9630452394485474e-01</stageThreshold>
      <weakClassifiers>
        <_>
          <internalNodes>
            0 -1 521 -2.7965817600488663e-02</internalNodes>
          <leafValues>
            5.4655170440673828e-01 4.7674417495727539e-02</leafValues></_>
        <_>
          <internalNodes>
            0 -1 148 2.1054650843143463e-01</internalNodes>
          <leafValues>
            -1.4597141742706299e-01 4.2006418108940125e-01</leafValues></_>
        <_>
          <internalNodes>
            0 -1 336 -2.9382528737187386e-03</internalNodes>
          <leafValues>
            3.6505571007728577e-01 -1.4212943613529205e-01</leafValues></_>
        <_>
          <internalNodes>
            0 -1 65 -4.4851405546069145e-03</internalNodes>
          <leafValues>
            2.8302940726280212e-01 -1.7399938404560089e-01</leafValues></_>
        <_>
          <internalNodes>
            0 -1 541 -8.0710902810096741e-02</internalNodes>
          <leafValues>
            4.1742965579032898e-01 -1.0909496992826462e-01</leafValues></_>
        <_>
          <internalNodes>
            0 -1 723 -9.2406505718827248e-03</internalNodes>
          <leafValues>
            5.1127374172210693e-01 -9.2571429908275604e-02</leafValues></_>
        <_>
          <internalNodes>
            0 -1 738 3.2858955673873425e-03</internalNodes>
          <leafValues>
            -8.5686318576335907e-02 5.0258880853652954e-01</leafValues></_>
        <_>
          <internalNodes>
            0 -1 525 -2.4550601374357939e-03</internalNodes>
          <leafValues>
            -6.8858659267425537e-01 6.4747333526611328e-02</leafValues></_>
        <_>
          <internalNodes>
            0 -1 242 -3.0083734542131424e-02</internalNodes>
          <leafValues>
            5.1864802837371826e-01 -8.6399950087070465e-02</leafValues></_>
        <_>
          <internalNodes>
            0 -1 163 6.6116806119680405e-03</internalNodes>
          <leafValues>
            -1.1668012291193008e-01 3.7937578558921814e-01</leafValues></_>
        <_>
          <internalNodes>
            0 -1 66 3.3543217927217484e-02</internalNodes>
          <leafValues>
            -6.9284297525882721e-02 5.2701562643051147e-01</leafValues></_>
        <_>
          <internalNodes>
            0 -1 486 -5.5251289159059525e-03</internalNodes>
          <leafValues>
            3.7697309255599976e-01 -8.0816589295864105e-02</leafValues></_>
        <_>
          <internalNodes>
            0 -1 559 -1.9048363901674747e-03</internalNodes>
          <leafValues>
            -4.5987471938133240e-01 8.2183994352817535e-02</leafValues></_>
        <_>
          <internalNodes>
            0 -1 24 -1.2818041443824768e-01</internalNodes>
          <leafValues>
            4.1663381457328796e-01 -8.7257966399192810e-02</leafValues></_>
        <_>
          <internalNodes>
            0 -1 298 1.0575260967016220e-02</internalNodes>
          <leafValues>
            -6.0796104371547699e-02 4.9732604622840881e-01</leafValues></_>
        <_>
          <internalNodes>
            0 -1 42 -3.0518716666847467e-03</internalNodes>
          <leafValues>
            2.0102398097515106e-01 -1.8049250543117523e-01</leafValues></_>
        <_>
          <internalNodes>
            0 -1 554 5.6383949704468250e-03</internalNodes>
          <leafValues>
            4.7558210790157318e-02 -7.0836663246154785e-01</leafValues></_>
        <_>
          <internalNodes>
            0 -1 348 -7.6990411616861820e-03</internalNodes>
          <leafValues>
            3.4568685293197632e-01 -9.9336326122283936e-02</leafValues></_>
        <_>
          <internalNodes>
            0 -1 111 5.3004985675215721e-03</internalNodes>
          <leafValues>
            1.3324595987796783e-01 -2.4826268851757050e-01</leafValues></_>
        <_>
          <internalNodes>
            0 -1 377 -6.7302887327969074e-04</internalNodes>
          <leafValues>
            -2.8899994492530823e-01 1.0570830106735229e-01</leafValues></_>
        <_>
          <internalNodes>
            0 -1 216 -5.9979660436511040e-03</internalNodes>
          <leafValues>
            4.0337249636650085e-01 -8.3550289273262024e-02</leafValues></_>
        <_>
          <internalNodes>
            0 -1 440 7.5988192111253738e-04</internalNodes>
          <leafValues>
            1.1079420894384384e-01 -3.1359300017356873e-01</leafValues></_>
        <_>
          <internalNodes>
            0 -1 72 4.2082583531737328e-03</internalNodes>
          <leafValues>
            -9.7110733389854431e-02 3.7586501240730286e-01</leafValues></_>
        <_>
          <internalNodes>
            0 -1 14 3.3281676471233368e-02</internalNodes>
          <leafValues>
            6.8559840321540833e-02 -6.1093825101852417e-01</leafValues></_>
        <_>
          <internalNodes>
            0 -1 333 -3.9357682690024376e-03</internalNodes>
          <leafValues>
            2.7473708987236023e-01 -1.3071916997432709e-01</leafValues></_>
        <_>
          <internalNodes>
            0 -1 105 -6.3024811446666718e-02</internalNodes>
          <leafValues>
            -5.1706409454345703e-01 5.7716462761163712e-02</leafValues></_>
        <_>
          <internalNodes>
            0 -1 26 1.9040992856025696e-01</internalNodes>
          <leafValues>
            4.4804662466049194e-02 -6.3374030590057373e-01</leafValues></_>
        <_>
          <internalNodes>
            0 -1 371 -2.6764995418488979e-03</internalNodes>
          <leafValues>
            -5.3912383317947388e-01 5.3345486521720886e-02</leafValues></_>
        <_>
          <internalNodes>
            0 -1 33 1.5343872364610434e-03</internalNodes>
          <leafValues>
            1.1541725695133209e-01 -2.5516012310981750e-01</leafValues></_>
        <_>
          <internalNodes>
            0 -1 767 -1.4180152211338282e-03</internalNodes>
          <leafValues>
            -3.9219203591346741e-01 7.3338508605957031e-02</leafValues></_>
        <_>
          <internalNodes>
            0 -1 726 2.7802120894193649e-03</internalNodes>
          <leafValues>
            -6.2901854515075684e-02 5.3509974479675293e-01</leafValues></_>
        <_>
          <internalNodes>
            0 -1 786 7.5935892527922988e-04</internalNodes>
          <leafValues>
            1.4609163999557495e-01 -1.9183765351772308e-01</leafValues></_>
        <_>
          <internalNodes>
            0 -1 761 4.1483500972390175e-03</internalNodes>
          <leafValues>
            -1.2368866801261902e-01 2.3848330974578857e-01</leafValues></_>
        <_>
          <internalNodes>
            0 -1 56 -3.7870104424655437e-03</internalNodes>
          <leafValues>
            -7.5761717557907104e-01 4.6075910329818726e-02</leafValues></_>
        <_>
          <internalNodes>
            0 -1 62 -9.5273917540907860e-03</internalNodes>
          <leafValues>
            -5.4318279027938843e-01 4.7822766005992889e-02</leafValues></_>
        <_>
          <internalNodes>
            0 -1 764 -9.8524559289216995e-03</internalNodes>
          <leafValues>
            4.4734424352645874e-01 -6.2712341547012329e-02</leafValues></_>
        <_>
          <internalNodes>
            0 -1 543 -3.7390932440757751e-02</internalNodes>
          <leafValues>
            -7.4710959196090698e-01 3.9811342954635620e-02</leafValues></_>
        <_>
          <internalNodes>
            0 -1 360 1.7373842420056462e-03</internalNodes>
          <leafValues>
            -7.6553314924240112e-02 3.9062917232513428e-01</leafValues></_>
        <_>
          <internalNodes>
            0 -1 470 1.8014113884419203e-03</internalNodes>
          <leafValues>
            -8.4039732813835144e-02 3.1796598434448242e-01</leafValues></_>
        <_>
          <internalNodes>
            0 -1 493 6.1854906380176544e-04</internalNodes>
          <leafValues>
            7.1546219289302826e-02 -4.4213378429412842e-01</leafValues></_>
        <_>
          <internalNodes>
            0 -1 343 4.8484615981578827e-03</internalNodes>
          <leafValues>
            -8.4206320345401764e-02 3.2834890484809875e-01</leafValues></_>
        <_>
          <internalNodes>
            0 -1 439 -2.2136829793453217e-03</internalNodes>
          <leafValues>
            2.1781970560550690e-01 -1.4922682940959930e-01</leafValues></_>
        <_>
          <internalNodes>
            0 -1 796 -5.5650336435064673e-04</internalNodes>
          <leafValues>
            -3.2557711005210876e-01 8.4955692291259766e-02</leafValues></_></weakClassifiers></_>
    <!-- stage 5 -->
    <_>
      <maxWeakCount>53</maxWeakCount>
      <stageThreshold>-8.9816623926162720e-01</stageThreshold>
      <weakClassifiers>
        <_>
          <internalNodes>
            0 -1 560 -1.8810763955116272e-02</internalNodes>
          <leafValues>
            5.6011730432510376e-01 7.7005922794342041e-02</leafValues></_>
        <_>
          <internalNodes>
            0 -1 240 3.5627249628305435e-02</internalNodes>
          <leafValues>
            -1.0632776468992233e-01 4.3177086114883423e-01</leafValues></_>
        <_>
          <internalNodes>
            0 -1 190 7.8399805352091789e-03</internalNodes>
          <leafValues>
            -1.6308577358722687e-01 3.0938017368316650e-01</leafValues></_>
        <_>
          <internalNodes>
            0 -1 732 -2.2389031946659088e-03</internalNodes>
          <leafValues>
            3.8540068268775940e-01 -9.2027358710765839e-02</leafValues></_>
        <_>
          <internalNodes>
            0 -1 114 2.9340360313653946e-02</internalNodes>
          <leafValues>
            -1.0449146479368210e-01 4.0484449267387390e-01</leafValues></_>
        <_>
          <internalNodes>
            0 -1 175 -9.0704467147588730e-03</internalNodes>
          <leafValues>
            3.2507443428039551e-01 -1.2393097579479218e-01</leafValues></_>
        <_>
          <internalNodes>
            0 -1 141 6.5105799585580826e-03</internalNodes>
          <leafValues>
            -8.9555919170379639e-02 3.8124325871467590e-01</leafValues></_>
        <_>
          <internalNodes>
            0 -1 208 -8.6605865508317947e-03</internalNodes>
          <leafValues>
            3.8083848357200623e-01 -8.6379617452621460e-02</leafValues></_>
        <_>
          <internalNodes>
            0 -1 740 3.1380704604089260e-03</internalNodes>
          <leafValues>
            -6.2128338962793350e-02 4.5730701088905334e-01</leafValues></_>
        <_>
          <internalNodes>
            0 -1 445 2.2529581189155579e-01</internalNodes>
          <leafValues>
            -7.1913324296474457e-02 4.2749321460723877e-01</leafValues></_>
        <_>
          <internalNodes>
            0 -1 737 -1.3663659337908030e-03</internalNodes>
          <leafValues>
            2.9617369174957275e-01 -1.2074153125286102e-01</leafValues></_>
        <_>
          <internalNodes>
            0 -1 765 -1.0008490644395351e-03</internalNodes>
          <leafValues>
            -3.2680878043174744e-01 1.0122488439083099e-01</leafValues></_>
        <_>
          <internalNodes>
            0 -1 146 -4.9300808459520340e-03</internalNodes>
          <leafValues>
            3.4810879826545715e-01 -8.3881191909313202e-02</leafValues></_>
        <_>
          <internalNodes>
            0 -1 790 3.6350390873849392e-03</internalNodes>
          <leafValues>
            1.0317988693714142e-01 -2.9410427808761597e-01</leafValues></_>
        <_>
          <internalNodes>
            0 -1 443 -3.9781690575182438e-03</internalNodes>
          <leafValues>
            -4.2452639341354370e-01 8.1084936857223511e-02</leafValues></_>
        <_>
          <internalNodes>
            0 -1 127 -7.8753978013992310e-03</internalNodes>
          <leafValues>
            3.8876971602439880e-01 -8.3395548164844513e-02</leafValues></_>
        <_>
          <internalNodes>
            0 -1 225 9.2988267540931702e-02</internalNodes>
          <leafValues>
            -6.0073725879192352e-02 4.0202230215072632e-01</leafValues></_>
        <_>
          <internalNodes>
            0 -1 604 8.1360787153244019e-03</internalNodes>
          <leafValues>
            -9.0898513793945313e-02 3.5781487822532654e-01</leafValues></_>
        <_>
          <internalNodes>
            0 -1 207 -2.1629835665225983e-01</internalNodes>
          <leafValues>
            5.8920770883560181e-01 -4.5117061585187912e-02</leafValues></_>
        <_>
          <internalNodes>
            0 -1 310 -8.6730353534221649e-02</internalNodes>
          <leafValues>
            5.2379339933395386e-01 -4.8623848706483841e-02</leafValues></_>
        <_>
          <internalNodes>
            0 -1 710 -1.1110805906355381e-02</internalNodes>
          <leafValues>
            4.4011619687080383e-01 -7.0163115859031677e-02</leafValues></_>
        <_>
          <internalNodes>
            0 -1 599 -4.7599174082279205e-02</internalNodes>
          <leafValues>
            3.3301699161529541e-01 -9.5831371843814850e-02</leafValues></_>
        <_>
          <internalNodes>
            0 -1 296 1.4713406562805176e-02</internalNodes>
          <leafValues>
            -5.4175626486539841e-02 5.5345457792282104e-01</leafValues></_>
        <_>
          <internalNodes>
            0 -1 775 2.6558723766356707e-04</internalNodes>
          <leafValues>
            1.0357888042926788e-01 -3.0719003081321716e-01</leafValues></_>
        <_>
          <internalNodes>
            0 -1 748 1.7551321070641279e-04</internalNodes>
          <leafValues>
            1.3507194817066193e-01 -2.3064404726028442e-01</leafValues></_>
        <_>
          <internalNodes>
            0 -1 119 1.2641537468880415e-03</internalNodes>
          <leafValues>
            1.3148501515388489e-01 -2.2426530718803406e-01</leafValues></_>
        <_>
          <internalNodes>
            0 -1 534 -1.3123103417456150e-03</internalNodes>
          <leafValues>
            2.9167711734771729e-01 -9.0523689985275269e-02</leafValues></_>
        <_>
          <internalNodes>
            0 -1 452 6.8466037511825562e-02</internalNodes>
          <leafValues>
            -1.0512096434831619e-01 2.7987754344940186e-01</leafValues></_>
        <_>
          <internalNodes>
            0 -1 685 3.8303064648061991e-03</internalNodes>
          <leafValues>
            -7.0221282541751862e-02 4.1599756479263306e-01</leafValues></_>
        <_>
          <internalNodes>
            0 -1 35 -2.3766255471855402e-03</internalNodes>
          <leafValues>
            2.6299157738685608e-01 -1.0218717157840729e-01</leafValues></_>
        <_>
          <internalNodes>
            0 -1 48 7.9737138003110886e-03</internalNodes>
          <leafValues>
            -5.6138414889574051e-02 4.4670832157135010e-01</leafValues></_>
        <_>
          <internalNodes>
            0 -1 198 3.7539774179458618e-01</internalNodes>
          <leafValues>
            -3.6969959735870361e-02 6.9244921207427979e-01</leafValues></_>
        <_>
          <internalNodes>
            0 -1 159 5.8376439847052097e-04</internalNodes>
          <leafValues>
            -8.8234759867191315e-02 2.8797671198844910e-01</leafValues></_>
        <_>
          <internalNodes>
            0 -1 353 6.5130030270665884e-04</internalNodes>
          <leafValues>
            1.0495994240045547e-01 -2.5600594282150269e-01</leafValues></_>
        <_>
          <internalNodes>
            0 -1 129 7.4665242573246360e-04</internalNodes>
          <leafValues>
            9.4224855303764343e-02 -2.9208439588546753e-01</leafValues></_>
        <_>
          <internalNodes>
            0 -1 749 -8.6758882389403880e-05</internalNodes>
          <leafValues>
            -2.0057632029056549e-01 1.4113894104957581e-01</leafValues></_>
        <_>
          <internalNodes>
            0 -1 558 -1.7965387087315321e-03</internalNodes>
          <leafValues>
            1.9632986187934875e-01 -1.5756592154502869e-01</leafValues></_>
        <_>
          <internalNodes>
            0 -1 658 -3.5416155587881804e-03</internalNodes>
          <leafValues>
            5.0837528705596924e-01 -6.1552666127681732e-02</leafValues></_>
        <_>
          <internalNodes>
            0 -1 644 2.0004305988550186e-03</internalNodes>
          <leafValues>
            -3.5916935652494431e-02 5.9123063087463379e-01</leafValues></_>
        <_>
          <internalNodes>
            0 -1 788 -1.0974102187901735e-03</internalNodes>
          <leafValues>
            -2.1694193780422211e-01 1.1203759163618088e-01</leafValues></_>
        <_>
          <internalNodes>
            0 -1 720 2.1091126836836338e-03</internalNodes>
          <leafValues>
            -8.2077741622924805e-02 2.9096445441246033e-01</leafValues></_>
        <_>
          <internalNodes>
            0 -1 682 1.3992363587021828e-02</internalNodes>
          <leafValues>
            5.6005924940109253e-02 -4.4818374514579773e-01</leafValues></_>
        <_>
          <internalNodes>
            0 -1 303 -3.8859616965055466e-02</internalNodes>
          <leafValues>
            2.2218303382396698e-01 -1.1045135557651520e-01</leafValues></_>
        <_>
          <internalNodes>
            0 -1 722 -1.2192644644528627e-03</internalNodes>
          <leafValues>
            3.4511244297027588e-01 -7.7455148100852966e-02</leafValues></_>
        <_>
          <internalNodes>
            0 -1 609 1.0168169625103474e-02</internalNodes>
          <leafValues>
            3.7339866161346436e-02 -7.9471313953399658e-01</leafValues></_>
        <_>
          <internalNodes>
            0 -1 412 6.7665809765458107e-03</internalNodes>
          <leafValues>
            -1.0922362655401230e-01 2.5014719367027283e-01</leafValues></_>
        <_>
          <internalNodes>
            0 -1 532 3.0144928023219109e-03</internalNodes>
          <leafValues>
            -5.9206217527389526e-02 5.1027792692184448e-01</leafValues></_>
        <_>
          <internalNodes>
            0 -1 67 -1.6682330518960953e-02</internalNodes>
          <leafValues>
            -7.3343193531036377e-01 4.6320438385009766e-02</leafValues></_>
        <_>
          <internalNodes>
            0 -1 171 -2.1743234246969223e-03</internalNodes>
          <leafValues>
            3.5612538456916809e-01 -7.8795403242111206e-02</leafValues></_>
        <_>
          <internalNodes>
            0 -1 216 2.0399827044457197e-03</internalNodes>
          <leafValues>
            -1.0036145895719528e-01 2.5224131345748901e-01</leafValues></_>
        <_>
          <internalNodes>
            0 -1 116 3.5591947380453348e-04</internalNodes>
          <leafValues>
            9.9519677460193634e-02 -2.4802108108997345e-01</leafValues></_>
        <_>
          <internalNodes>
            0 -1 782 -3.8567028241232038e-04</internalNodes>
          <leafValues>
            -2.6325282454490662e-01 9.5936954021453857e-02</leafValues></_>
        <_>
          <internalNodes>
            0 -1 429 1.2520112795755267e-03</internalNodes>
          <leafValues>
            -1.4566455781459808e-01 1.6786549985408783e-01</leafValues></_></weakClassifiers></_>
    <!-- stage 6 -->
    <_>
      <maxWeakCount>55</maxWeakCount>
      <stageThreshold>-8.7508851289749146e-01</stageThreshold>
      <weakClassifiers>
        <_>
          <internalNodes>
            0 -1 288 -4.4878669083118439e-02</internalNodes>
          <leafValues>
            5.5241262912750244e-01 3.0989272519946098e-02</leafValues></_>
        <_>
          <internalNodes>
            0 -1 22 2.3891696706414223e-02</internalNodes>
          <leafValues>
            -1.3411633670330048e-01 4.5127052068710327e-01</leafValues></_>
        <_>
          <internalNodes>
            0 -1 661 -2.2054765373468399e-02</internalNodes>
          <leafValues>
            2.8719890117645264e-01 -1.8242852389812469e-01</leafValues></_>
        <_>
          <internalNodes>
            0 -1 315 -5.1646628417074680e-03</internalNodes>
          <leafValues>
            3.2638436555862427e-01 -1.3379232585430145e-01</leafValues></_>
        <_>
          <internalNodes>
            0 -1 238 4.3293736875057220e-02</internalNodes>
          <leafValues>
            -7.2876282036304474e-02 5.2247571945190430e-01</leafValues></_>
        <_>
          <internalNodes>
            0 -1 633 1.5543706715106964e-02</internalNodes>
          <leafValues>
            -1.0839062184095383e-01 3.4480589628219604e-01</leafValues></_>
        <_>
          <internalNodes>
            0 -1 206 -7.7374409884214401e-03</internalNodes>
          <leafValues>
            3.0757325887680054e-01 -9.4330072402954102e-02</leafValues></_>
        <_>
          <internalNodes>
            0 -1 526 1.5910640358924866e-03</internalNodes>
          <leafValues>
            5.5851135402917862e-02 -5.3041487932205200e-01</leafValues></_>
        <_>
          <internalNodes>
            0 -1 701 3.2200948335230350e-03</internalNodes>
          <leafValues>
            -9.6880681812763214e-02 2.9339122772216797e-01</leafValues></_>
        <_>
          <internalNodes>
            0 -1 476 -3.7747696042060852e-03</internalNodes>
          <leafValues>
            2.5901812314987183e-01 -1.1199044436216354e-01</leafValues></_>
        <_>
          <internalNodes>
            0 -1 361 -8.7603367865085602e-03</internalNodes>
          <leafValues>
            3.7993246316909790e-01 -7.4548348784446716e-02</leafValues></_>
        <_>
          <internalNodes>
            0 -1 491 7.7749963384121656e-04</internalNodes>
          <leafValues>
            1.1349976062774658e-01 -2.4450367689132690e-01</leafValues></_>
        <_>
          <internalNodes>
            0 -1 290 -2.7712525334209204e-03</internalNodes>
          <leafValues>
            4.7702699899673462e-01 -4.5992583036422729e-02</leafValues></_>
        <_>
          <internalNodes>
            0 -1 446 -8.3917425945401192e-03</internalNodes>
          <leafValues>
            -5.0295811891555786e-01 5.5747274309396744e-02</leafValues></_>
        <_>
          <internalNodes>
            0 -1 95 1.5207557007670403e-03</internalNodes>
          <leafValues>
            -9.8763182759284973e-02 2.8341332077980042e-01</leafValues></_>
        <_>
          <internalNodes>
            0 -1 86 -3.9525609463453293e-03</internalNodes>
          <leafValues>
            3.6548390984535217e-01 -1.1554323881864548e-01</leafValues></_>
        <_>
          <internalNodes>
            0 -1 516 -1.4678299194201827e-03</internalNodes>
          <leafValues>
            2.0587356388568878e-01 -1.3137294352054596e-01</leafValues></_>
        <_>
          <internalNodes>
            0 -1 359 -2.1719949319958687e-02</internalNodes>
          <leafValues>
            -7.8263366222381592e-01 4.5757140964269638e-02</leafValues></_>
        <_>
          <internalNodes>
            0 -1 451 2.7776073693530634e-05</internalNodes>
          <leafValues>
            -1.5829186141490936e-01 1.6580715775489807e-01</leafValues></_>
        <_>
          <internalNodes>
            0 -1 365 7.8244712203741074e-03</internalNodes>
          <leafValues>
            3.6079350858926773e-02 -7.8485113382339478e-01</leafValues></_>
        <_>
          <internalNodes>
            0 -1 603 -5.6716422550380230e-03</internalNodes>
          <leafValues>
            2.2419208288192749e-01 -1.1695484817028046e-01</leafValues></_>
        <_>
          <internalNodes>
            0 -1 775 -2.4918239796534181e-04</internalNodes>
          <leafValues>
            -2.3123189806938171e-01 1.1019535362720490e-01</leafValues></_>
        <_>
          <internalNodes>
            0 -1 366 -3.6538946442306042e-03</internalNodes>
          <leafValues>
            -4.1214928030967712e-01 6.1792511492967606e-02</leafValues></_>
        <_>
          <internalNodes>
            0 -1 611 -3.5559239331632853e-03</internalNodes>
          <leafValues>
            3.5771518945693970e-01 -7.2101093828678131e-02</leafValues></_>
        <_>
          <internalNodes>
            0 -1 428 -7.9854696989059448e-02</internalNodes>
          <leafValues>
            -4.8620340228080750e-01 5.2285924553871155e-02</leafValues></_>
        <_>
          <internalNodes>
            0 -1 466 -8.5555613040924072e-03</internalNodes>
          <leafValues>
            2.4341961741447449e-01 -1.0968168824911118e-01</leafValues></_>
        <_>
          <internalNodes>
            0 -1 143 -3.1253028661012650e-02</internalNodes>
          <leafValues>
            2.0565654337406158e-01 -1.2305945158004761e-01</leafValues></_>
        <_>
          <internalNodes>
            0 -1 272 2.1494369953870773e-02</internalNodes>
          <leafValues>
            -8.9711405336856842e-02 2.6875919103622437e-01</leafValues></_>
        <_>
          <internalNodes>
            0 -1 437 8.5311033762991428e-04</internalNodes>
          <leafValues>
            6.8457029759883881e-02 -3.6059716343879700e-01</leafValues></_>
        <_>
          <internalNodes>
            0 -1 776 3.1556602567434311e-02</internalNodes>
          <leafValues>
            4.8434600234031677e-02 -5.0454944372177124e-01</leafValues></_>
        <_>
          <internalNodes>
            0 -1 385 -5.2605825476348400e-04</internalNodes>
          <leafValues>
            1.6605377197265625e-01 -1.5762510895729065e-01</leafValues></_>
        <_>
          <internalNodes>
            0 -1 232 1.0970959010592196e-05</internalNodes>
          <leafValues>
            -1.4999593794345856e-01 1.5652120113372803e-01</leafValues></_>
        <_>
          <internalNodes>
            0 -1 481 -2.1100226149428636e-04</internalNodes>
          <leafValues>
            -2.4893207848072052e-01 9.1826409101486206e-02</leafValues></_>
        <_>
          <internalNodes>
            0 -1 285 -6.2435783911496401e-04</internalNodes>
          <leafValues>
            3.3129149675369263e-01 -7.1528382599353790e-02</leafValues></_>
        <_>
          <internalNodes>
            0 -1 247 2.1912634372711182e-01</internalNodes>
          <leafValues>
            -2.9656164348125458e-02 6.9670581817626953e-01</leafValues></_>
        <_>
          <internalNodes>
            0 -1 704 9.7897388041019440e-03</internalNodes>
          <leafValues>
            -7.3159806430339813e-02 3.0464306473731995e-01</leafValues></_>
        <_>
          <internalNodes>
            0 -1 34 1.6988195478916168e-02</internalNodes>
          <leafValues>
            5.2143339067697525e-02 -5.0448584556579590e-01</leafValues></_>
        <_>
          <internalNodes>
            0 -1 741 1.7775909509509802e-03</internalNodes>
          <leafValues>
            -7.7649697661399841e-02 3.3158725500106812e-01</leafValues></_>
        <_>
          <internalNodes>
            0 -1 107 -6.3916128128767014e-03</internalNodes>
          <leafValues>
            2.6277038455009460e-01 -9.1870322823524475e-02</leafValues></_>
        <_>
          <internalNodes>
            0 -1 325 2.7808433398604393e-02</internalNodes>
          <leafValues>
            3.9257947355508804e-02 -6.0058426856994629e-01</leafValues></_>
        <_>
          <internalNodes>
            0 -1 291 -6.3273310661315918e-03</internalNodes>
          <leafValues>
            2.3853223025798798e-01 -1.0838449746370316e-01</leafValues></_>
        <_>
          <internalNodes>
            0 -1 131 -2.0013069733977318e-03</internalNodes>
          <leafValues>
            1.7701312899589539e-01 -1.3795658946037292e-01</leafValues></_>
        <_>
          <internalNodes>
            0 -1 686 -1.7566671594977379e-03</internalNodes>
          <leafValues>
            4.2519509792327881e-01 -6.5472319722175598e-02</leafValues></_>
        <_>
          <internalNodes>
            0 -1 694 -7.5327955186367035e-02</internalNodes>
          <leafValues>
            -4.9929204583168030e-01 5.2798174321651459e-02</leafValues></_>
        <_>
          <internalNodes>
            0 -1 659 -5.2597876638174057e-03</internalNodes>
          <leafValues>
            3.8020744919776917e-01 -6.8917982280254364e-02</leafValues></_>
        <_>
          <internalNodes>
            0 -1 568 1.5315604396164417e-03</internalNodes>
          <leafValues>
            7.1767918765544891e-02 -3.5396647453308105e-01</leafValues></_>
        <_>
          <internalNodes>
            0 -1 678 -7.1680657565593719e-03</internalNodes>
          <leafValues>
            4.7859087586402893e-01 -5.5809229612350464e-02</leafValues></_>
        <_>
          <internalNodes>
            0 -1 763 2.3077771766111255e-04</internalNodes>
          <leafValues>
            1.1110108345746994e-01 -2.4255405366420746e-01</leafValues></_>
        <_>
          <internalNodes>
            0 -1 539 2.6241175364702940e-03</internalNodes>
          <leafValues>
            -7.7715940773487091e-02 3.3974564075469971e-01</leafValues></_>
        <_>
          <internalNodes>
            0 -1 185 3.5119906067848206e-02</internalNodes>
          <leafValues>
            -8.7361976504325867e-02 2.7100297808647156e-01</leafValues></_>
        <_>
          <internalNodes>
            0 -1 717 3.5727300564758480e-04</internalNodes>
          <leafValues>
            9.5597967505455017e-02 -2.5659915804862976e-01</leafValues></_>
        <_>
          <internalNodes>
            0 -1 523 4.9715630710124969e-02</internalNodes>
          <leafValues>
            -9.5606274902820587e-02 2.7402180433273315e-01</leafValues></_>
        <_>
          <internalNodes>
            0 -1 680 6.5549984574317932e-03</internalNodes>
          <leafValues>
            -6.9647632539272308e-02 3.7451574206352234e-01</leafValues></_>
        <_>
          <internalNodes>
            0 -1 447 -4.5371562009677291e-04</internalNodes>
          <leafValues>
            -2.8844687342643738e-01 8.9249618351459503e-02</leafValues></_>
        <_>
          <internalNodes>
            0 -1 192 -1.6149616241455078e-01</internalNodes>
          <leafValues>
            3.6650958657264709e-01 -6.1558522284030914e-02</leafValues></_></weakClassifiers></_>
    <!-- stage 7 -->
    <_>
      <maxWeakCount>52</maxWeakCount>
      <stageThreshold>-8.1670880317687988e-01</stageThreshold>
      <weakClassifiers>
        <_>
          <internalNodes>
            0 -1 201 1.4635573327541351e-01</internalNodes>
          <leafValues>
            -1.8404908478260040e-02 5.9680002927780151e-01</leafValues></_>
        <_>
          <internalNodes>
            0 -1 224 -6.4690029248595238e-03</internalNodes>
          <leafValues>
            3.7597909569740295e-01 -1.5147449076175690e-01</leafValues></_>
        <_>
          <internalNodes>
            0 -1 519 -1.5818057581782341e-03</internalNodes>
          <leafValues>
            -4.6857148408889771e-01 1.0075793415307999e-01</leafValues></_>
        <_>
          <internalNodes>
            0 -1 369 7.8181326389312744e-02</internalNodes>
          <leafValues>
            -1.2846997380256653e-01 3.2732686400413513e-01</leafValues></_>
        <_>
          <internalNodes>
            0 -1 199 5.1340665668249130e-02</internalNodes>
          <leafValues>
            -1.0632205009460449e-01 3.9188820123672485e-01</leafValues></_>
        <_>
          <internalNodes>
            0 -1 98 9.7684234380722046e-02</internalNodes>
          <leafValues>
            -6.7707672715187073e-02 4.8964330554008484e-01</leafValues></_>
        <_>
          <internalNodes>
            0 -1 479 -1.4204213023185730e-01</internalNodes>
          <leafValues>
            5.1932758092880249e-01 -1.0360319167375565e-01</leafValues></_>
        <_>
          <internalNodes>
            0 -1 598 4.5168064534664154e-03</internalNodes>
          <leafValues>
            6.5241575241088867e-02 -5.3990048170089722e-01</leafValues></_>
        <_>
          <internalNodes>
            0 -1 758 1.6806413186714053e-03</internalNodes>
          <leafValues>
            -1.5007764101028442e-01 2.0919238030910492e-01</leafValues></_>
        <_>
          <internalNodes>
            0 -1 430 -2.1034069359302521e-02</internalNodes>
          <leafValues>
            2.1937513351440430e-01 -1.3346467912197113e-01</leafValues></_>
        <_>
          <internalNodes>
            0 -1 370 2.9783849604427814e-03</internalNodes>
          <leafValues>
            2.9699847102165222e-02 -6.9409328699111938e-01</leafValues></_>
        <_>
          <internalNodes>
            0 -1 762 1.0207011364400387e-03</internalNodes>
          <leafValues>
            7.0458270609378815e-02 -3.5560870170593262e-01</leafValues></_>
        <_>
          <internalNodes>
            0 -1 591 1.7220056615769863e-03</internalNodes>
          <leafValues>
            -8.3706982433795929e-02 3.3130383491516113e-01</leafValues></_>
        <_>
          <internalNodes>
            0 -1 330 1.5775203704833984e-02</internalNodes>
          <leafValues>
            -6.9464236497879028e-02 3.7136948108673096e-01</leafValues></_>
        <_>
          <internalNodes>
            0 -1 397 -8.9394757524132729e-03</internalNodes>
          <leafValues>
            -4.1014978289604187e-01 7.2980694472789764e-02</leafValues></_>
        <_>
          <internalNodes>
            0 -1 500 -5.1935631781816483e-03</internalNodes>
          <leafValues>
            -6.4966762065887451e-01 3.6765303462743759e-02</leafValues></_>
        <_>
          <internalNodes>
            0 -1 427 -8.3168491255491972e-04</internalNodes>
          <leafValues>
            1.0842179507017136e-01 -2.4612721800804138e-01</leafValues></_>
        <_>
          <internalNodes>
            0 -1 70 -2.8963051736354828e-03</internalNodes>
          <leafValues>
            2.5719451904296875e-01 -1.1300656944513321e-01</leafValues></_>
        <_>
          <internalNodes>
            0 -1 662 -2.1211715415120125e-02</internalNodes>
          <leafValues>
            2.3051723837852478e-01 -1.1108903586864471e-01</leafValues></_>
        <_>
          <internalNodes>
            0 -1 647 9.7046401351690292e-03</internalNodes>
          <leafValues>
            -6.8719372153282166e-02 3.7925955653190613e-01</leafValues></_>
        <_>
          <internalNodes>
            0 -1 44 2.0388564094901085e-02</internalNodes>
          <leafValues>
            -7.2735741734504700e-02 3.5286638140678406e-01</leafValues></_>
        <_>
          <internalNodes>
            0 -1 442 -6.6191782243549824e-03</internalNodes>
          <leafValues>
            -6.5919679403305054e-01 4.0268644690513611e-02</leafValues></_>
        <_>
          <internalNodes>
            0 -1 188 8.9003313332796097e-03</internalNodes>
          <leafValues>
            -9.1783985495567322e-02 2.6074364781379700e-01</leafValues></_>
        <_>
          <internalNodes>
            0 -1 297 -1.7997827380895615e-02</internalNodes>
          <leafValues>
            2.0662738382816315e-01 -1.1745613813400269e-01</leafValues></_>
        <_>
          <internalNodes>
            0 -1 393 4.8845121636986732e-03</internalNodes>
          <leafValues>
            -6.3741326332092285e-02 3.8515430688858032e-01</leafValues></_>
        <_>
          <internalNodes>
            0 -1 331 -1.8826380372047424e-02</internalNodes>
          <leafValues>
            -8.3488965034484863e-01 2.9739176854491234e-02</leafValues></_>
        <_>
          <internalNodes>
            0 -1 220 -1.3690927997231483e-02</internalNodes>
          <leafValues>
            -4.2063805460929871e-01 4.9725987017154694e-02</leafValues></_>
        <_>
          <internalNodes>
            0 -1 621 3.9069637656211853e-02</internalNodes>
          <leafValues>
            -7.1670100092887878e-02 3.4794440865516663e-01</leafValues></_>
        <_>
          <internalNodes>
            0 -1 196 1.5337438881397247e-01</internalNodes>
          <leafValues>
            -9.9313825368881226e-02 2.9319530725479126e-01</leafValues></_>
        <_>
          <internalNodes>
            0 -1 157 5.1720212213695049e-03</internalNodes>
          <leafValues>
            -8.6374722421169281e-02 2.8707677125930786e-01</leafValues></_>
        <_>
          <internalNodes>
            0 -1 88 -1.1062430217862129e-02</internalNodes>
          <leafValues>
            2.8756770491600037e-01 -1.0356611013412476e-01</leafValues></_>
        <_>
          <internalNodes>
            0 -1 11 1.5641825273633003e-02</internalNodes>
          <leafValues>
            7.3886170983314514e-02 -3.4391987323760986e-01</leafValues></_>
        <_>
          <internalNodes>
            0 -1 774 5.4293684661388397e-04</internalNodes>
          <leafValues>
            1.0014253109693527e-01 -2.5264191627502441e-01</leafValues></_>
        <_>
          <internalNodes>
            0 -1 435 5.2428441122174263e-03</internalNodes>
          <leafValues>
            -1.0670794546604156e-01 2.4587345123291016e-01</leafValues></_>
        <_>
          <internalNodes>
            0 -1 406 1.6844172496348619e-03</internalNodes>
          <leafValues>
            -1.1408666521310806e-01 2.7778634428977966e-01</leafValues></_>
        <_>
          <internalNodes>
            0 -1 345 -1.5763883711770177e-03</internalNodes>
          <leafValues>
            -3.8313364982604980e-01 7.1615099906921387e-02</leafValues></_>
        <_>
          <internalNodes>
            0 -1 31 8.4805861115455627e-02</internalNodes>
          <leafValues>
            4.0880344808101654e-02 -6.0541588068008423e-01</leafValues></_>
        <_>
          <internalNodes>
            0 -1 663 2.5762869045138359e-03</internalNodes>
          <leafValues>
            -9.7763709723949432e-02 2.5314086675643921e-01</leafValues></_>
        <_>
          <internalNodes>
            0 -1 590 -3.3164611086249352e-03</internalNodes>
          <leafValues>
            -5.0646710395812988e-01 5.3631126880645752e-02</leafValues></_>
        <_>
          <internalNodes>
            0 -1 176 -5.9692212380468845e-03</internalNodes>
          <leafValues>
            2.0549173653125763e-01 -1.1918567866086960e-01</leafValues></_>
        <_>
          <internalNodes>
            0 -1 759 -3.0835939105600119e-03</internalNodes>
          <leafValues>
            2.2859939932823181e-01 -1.0278449952602386e-01</leafValues></_>
        <_>
          <internalNodes>
            0 -1 770 1.3975015463074669e-05</internalNodes>
          <leafValues>
            -1.7281715571880341e-01 1.6637146472930908e-01</leafValues></_>
        <_>
          <internalNodes>
            0 -1 634 3.2897427678108215e-02</internalNodes>
          <leafValues>
            -7.6656930148601532e-02 3.2789224386215210e-01</leafValues></_>
        <_>
          <internalNodes>
            0 -1 270 -3.0686849355697632e-01</internalNodes>
          <leafValues>
            3.9916503429412842e-01 -6.9329001009464264e-02</leafValues></_>
        <_>
          <internalNodes>
            0 -1 10 -5.7184543460607529e-02</internalNodes>
          <leafValues>
            2.7433270215988159e-01 -8.7982460856437683e-02</leafValues></_>
        <_>
          <internalNodes>
            0 -1 30 5.0010412931442261e-02</internalNodes>
          <leafValues>
            -7.8375779092311859e-02 3.5834598541259766e-01</leafValues></_>
        <_>
          <internalNodes>
            0 -1 567 -3.6918630357831717e-03</internalNodes>
          <leafValues>
            3.3822944760322571e-01 -7.0170007646083832e-02</leafValues></_>
        <_>
          <internalNodes>
            0 -1 623 -3.6294147139415145e-04</internalNodes>
          <leafValues>
            -2.4249479174613953e-01 1.1008968204259872e-01</leafValues></_>
        <_>
          <internalNodes>
            0 -1 584 -3.3769332803785801e-03</internalNodes>
          <leafValues>
            -5.2258944511413574e-01 4.1920356452465057e-02</leafValues></_>
        <_>
          <internalNodes>
            0 -1 741 1.5396662056446075e-03</internalNodes>
          <leafValues>
            -7.9392619431018829e-02 2.8125539422035217e-01</leafValues></_>
        <_>
          <internalNodes>
            0 -1 260 3.3822011947631836e-01</internalNodes>
          <leafValues>
            -5.0523769110441208e-02 4.6293592453002930e-01</leafValues></_>
        <_>
          <internalNodes>
            0 -1 478 -3.8725067861378193e-03</internalNodes>
          <leafValues>
            2.5152826309204102e-01 -8.7591119110584259e-02</leafValues></_></weakClassifiers></_>
    <!-- stage 8 -->
    <_>
      <maxWeakCount>55</maxWeakCount>
      <stageThreshold>-7.3900258541107178e-01</stageThreshold>
      <weakClassifiers>
        <_>
          <internalNodes>
            0 -1 610 -1.2494094669818878e-02</internalNodes>
          <leafValues>
            5.1137322187423706e-01 6.4382754266262054e-02</leafValues></_>
        <_>
          <internalNodes>
            0 -1 36 -2.3033497855067253e-03</internalNodes>
          <leafValues>
            2.8346130251884460e-01 -1.4475657045841217e-01</leafValues></_>
        <_>
          <internalNodes>
            0 -1 118 2.2889131680130959e-02</internalNodes>
          <leafValues>
            -1.7636334896087646e-01 2.8204098343849182e-01</leafValues></_>
        <_>
          <internalNodes>
            0 -1 424 5.6805191561579704e-03</internalNodes>
          <leafValues>
            7.8843459486961365e-02 -3.9394673705101013e-01</leafValues></_>
        <_>
          <internalNodes>
            0 -1 379 -4.4976174831390381e-03</internalNodes>
          <leafValues>
            2.4771562218666077e-01 -1.4386014640331268e-01</leafValues></_>
        <_>
          <internalNodes>
            0 -1 509 6.5144067630171776e-03</internalNodes>
          <leafValues>
            6.9809004664421082e-02 -3.4515452384948730e-01</leafValues></_>
        <_>
          <internalNodes>
            0 -1 6 -9.2940172180533409e-03</internalNodes>
          <leafValues>
            3.6892196536064148e-01 -7.7726326882839203e-02</leafValues></_>
        <_>
          <internalNodes>
            0 -1 408 -3.5647335462272167e-03</internalNodes>
          <leafValues>
            -5.2846026420593262e-01 5.8208074420690536e-02</leafValues></_>
        <_>
          <internalNodes>
            0 -1 205 -7.4252843856811523e-02</internalNodes>
          <leafValues>
            -4.3456619977951050e-01 6.3094526529312134e-02</leafValues></_>
        <_>
          <internalNodes>
            0 -1 110 1.4134578406810760e-02</internalNodes>
          <leafValues>
            9.4869665801525116e-02 -3.2700285315513611e-01</leafValues></_>
        <_>
          <internalNodes>
            0 -1 74 5.4051959887146950e-03</internalNodes>
          <leafValues>
            -8.9930891990661621e-02 3.0052173137664795e-01</leafValues></_>
        <_>
          <internalNodes>
            0 -1 781 1.2666975380852818e-03</internalNodes>
          <leafValues>
            7.9263202846050262e-02 -3.1687441468238831e-01</leafValues></_>
        <_>
          <internalNodes>
            0 -1 465 1.1031599715352058e-03</internalNodes>
          <leafValues>
            8.3727382123470306e-02 -2.7264699339866638e-01</leafValues></_>
        <_>
          <internalNodes>
            0 -1 555 -1.3382926117628813e-03</internalNodes>
          <leafValues>
            2.4081464111804962e-01 -1.0035963356494904e-01</leafValues></_>
        <_>
          <internalNodes>
            0 -1 337 9.7644636407494545e-03</internalNodes>
          <leafValues>
            -5.3184531629085541e-02 4.7078904509544373e-01</leafValues></_>
        <_>
          <internalNodes>
            0 -1 472 6.2024644576013088e-03</internalNodes>
          <leafValues>
            -8.2201622426509857e-02 2.7867147326469421e-01</leafValues></_>
        <_>
          <internalNodes>
            0 -1 223 3.1940597295761108e-01</internalNodes>
          <leafValues>
            -5.9065848588943481e-02 4.7196784615516663e-01</leafValues></_>
        <_>
          <internalNodes>
            0 -1 25 5.7156547904014587e-02</internalNodes>
          <leafValues>
            5.8020841330289841e-02 -4.9028974771499634e-01</leafValues></_>
        <_>
          <internalNodes>
            0 -1 696 -6.6663296893239021e-03</internalNodes>
          <leafValues>
            2.8873339295387268e-01 -9.0756103396415710e-02</leafValues></_>
        <_>
          <internalNodes>
            0 -1 553 -1.9505114760249853e-03</internalNodes>
          <leafValues>
            -6.3173210620880127e-01 4.0558975189924240e-02</leafValues></_>
        <_>
          <internalNodes>
            0 -1 362 5.7967663742601871e-03</internalNodes>
          <leafValues>
            -7.4635900557041168e-02 3.3811515569686890e-01</leafValues></_>
        <_>
          <internalNodes>
            0 -1 294 3.2661542296409607e-02</internalNodes>
          <leafValues>
            -1.2441571801900864e-01 1.9164517521858215e-01</leafValues></_>
        <_>
          <internalNodes>
            0 -1 83 2.2596815600991249e-02</internalNodes>
          <leafValues>
            5.5416293442249298e-02 -3.9229753613471985e-01</leafValues></_>
        <_>
          <internalNodes>
            0 -1 719 -4.4908495619893074e-03</internalNodes>
          <leafValues>
            -5.4185903072357178e-01 4.0237322449684143e-02</leafValues></_>
        <_>
          <internalNodes>
            0 -1 209 6.5535691101104021e-04</internalNodes>
          <leafValues>
            -7.3628596961498260e-02 3.1121835112571716e-01</leafValues></_>
        <_>
          <internalNodes>
            0 -1 193 -4.1382265090942383e-01</internalNodes>
          <leafValues>
            5.2667307853698730e-01 -4.1049670428037643e-02</leafValues></_>
        <_>
          <internalNodes>
            0 -1 699 3.1366192270070314e-03</internalNodes>
          <leafValues>
            -9.2679977416992188e-02 2.2733543813228607e-01</leafValues></_>
        <_>
          <internalNodes>
            0 -1 117 -1.0042103007435799e-02</internalNodes>
          <leafValues>
            2.1138800680637360e-01 -9.6886307001113892e-02</leafValues></_>
        <_>
          <internalNodes>
            0 -1 68 6.9404616951942444e-02</internalNodes>
          <leafValues>
            2.6617018505930901e-02 -7.6982498168945313e-01</leafValues></_>
        <_>
          <internalNodes>
            0 -1 178 -1.5709023922681808e-02</internalNodes>
          <leafValues>
            -7.8817725181579590e-01 2.0265847444534302e-02</leafValues></_>
        <_>
          <internalNodes>
            0 -1 391 5.0869896076619625e-03</internalNodes>
          <leafValues>
            -8.1084690988063812e-02 2.5249993801116943e-01</leafValues></_>
        <_>
          <internalNodes>
            0 -1 416 -2.4367857258766890e-03</internalNodes>
          <leafValues>
            2.5971630215644836e-01 -1.0919858515262604e-01</leafValues></_>
        <_>
          <internalNodes>
            0 -1 549 1.1976837180554867e-02</internalNodes>
          <leafValues>
            5.0663884729146957e-02 -5.4288721084594727e-01</leafValues></_>
        <_>
          <internalNodes>
            0 -1 355 -2.4024412035942078e-02</internalNodes>
          <leafValues>
            2.1468758583068848e-01 -1.1195466667413712e-01</leafValues></_>
        <_>
          <internalNodes>
            0 -1 367 -3.6840394139289856e-02</internalNodes>
          <leafValues>
            3.9737328886985779e-01 -5.9790041297674179e-02</leafValues></_>
        <_>
          <internalNodes>
            0 -1 90 -1.8355632200837135e-03</internalNodes>
          <leafValues>
            2.4036513268947601e-01 -9.9194139242172241e-02</leafValues></_>
        <_>
          <internalNodes>
            0 -1 87 3.2256441190838814e-03</internalNodes>
          <leafValues>
            -8.5489630699157715e-02 2.8909176588058472e-01</leafValues></_>
        <_>
          <internalNodes>
            0 -1 341 -1.5655891911592335e-04</internalNodes>
          <leafValues>
            -1.9083473086357117e-01 1.1837095022201538e-01</leafValues></_>
        <_>
          <internalNodes>
            0 -1 793 -8.3323987200856209e-04</internalNodes>
          <leafValues>
            -3.0992922186851501e-01 6.9944590330123901e-02</leafValues></_>
        <_>
          <internalNodes>
            0 -1 383 8.2029085606336594e-03</internalNodes>
          <leafValues>
            3.4978911280632019e-02 -5.5510789155960083e-01</leafValues></_>
        <_>
          <internalNodes>
            0 -1 217 4.6876920387148857e-03</internalNodes>
          <leafValues>
            -6.9361530244350433e-02 2.9543673992156982e-01</leafValues></_>
        <_>
          <internalNodes>
            0 -1 629 -1.7154898494482040e-02</internalNodes>
          <leafValues>
            3.4789302945137024e-01 -5.3535271435976028e-02</leafValues></_>
        <_>
          <internalNodes>
            0 -1 651 5.1250057294964790e-03</internalNodes>
          <leafValues>
            -9.2460714280605316e-02 2.6594024896621704e-01</leafValues></_>
        <_>
          <internalNodes>
            0 -1 630 -3.2005910761654377e-03</internalNodes>
          <leafValues>
            -3.9288538694381714e-01 5.6935179978609085e-02</leafValues></_>
        <_>
          <internalNodes>
            0 -1 791 -3.2136982190422714e-04</internalNodes>
          <leafValues>
            -2.2569505870342255e-01 9.2971362173557281e-02</leafValues></_>
        <_>
          <internalNodes>
            0 -1 489 2.9651466757059097e-03</internalNodes>
          <leafValues>
            -8.2041665911674500e-02 2.6391372084617615e-01</leafValues></_>
        <_>
          <internalNodes>
            0 -1 61 -1.7430841922760010e-02</internalNodes>
          <leafValues>
            -5.1448845863342285e-01 3.9578691124916077e-02</leafValues></_>
        <_>
          <internalNodes>
            0 -1 221 3.9184456691145897e-03</internalNodes>
          <leafValues>
            -1.4267067611217499e-01 1.5301041305065155e-01</leafValues></_>
        <_>
          <internalNodes>
            0 -1 411 -1.7241651657968760e-03</internalNodes>
          <leafValues>
            1.8205812573432922e-01 -1.2377601116895676e-01</leafValues></_>
        <_>
          <internalNodes>
            0 -1 258 1.2308379635214806e-02</internalNodes>
          <leafValues>
            -8.9107863605022430e-02 2.6818564534187317e-01</leafValues></_>
        <_>
          <internalNodes>
            0 -1 547 2.3714330047369003e-02</internalNodes>
          <leafValues>
            -5.1761366426944733e-02 3.7555301189422607e-01</leafValues></_>
        <_>
          <internalNodes>
            0 -1 522 1.7492476105690002e-01</internalNodes>
          <leafValues>
            -7.4674062430858612e-02 2.6934930682182312e-01</leafValues></_>
        <_>
          <internalNodes>
            0 -1 483 -3.7797207478433847e-03</internalNodes>
          <leafValues>
            1.8922056257724762e-01 -1.2590663135051727e-01</leafValues></_>
        <_>
          <internalNodes>
            0 -1 161 3.1819904688745737e-03</internalNodes>
          <leafValues>
            -9.2951573431491852e-02 2.2808170318603516e-01</leafValues></_>
        <_>
          <internalNodes>
            0 -1 97 -9.1263279318809509e-03</internalNodes>
          <leafValues>
            1.9826236367225647e-01 -1.1505743861198425e-01</leafValues></_></weakClassifiers></_>
    <!-- stage 9 -->
    <_>
      <maxWeakCount>58</maxWeakCount>
      <stageThreshold>-6.9854158163070679e-01</stageThreshold>
      <weakClassifiers>
        <_>
          <internalNodes>
            0 -1 597 -1.0373866185545921e-02</internalNodes>
          <leafValues>
            5.6235295534133911e-01 1.1724138259887695e-01</leafValues></_>
        <_>
          <internalNodes>
            0 -1 401 -8.0489153042435646e-03</internalNodes>
          <leafValues>
            2.0351743698120117e-01 -1.9674547016620636e-01</leafValues></_>
        <_>
          <internalNodes>
            0 -1 264 -9.1851234901696444e-04</internalNodes>
          <leafValues>
            2.3631611466407776e-01 -1.5864320099353790e-01</leafValues></_>
        <_>
          <internalNodes>
            0 -1 273 -2.2179023921489716e-01</internalNodes>
          <leafValues>
            5.7783854007720947e-01 -8.2102060317993164e-02</leafValues></_>
        <_>
          <internalNodes>
            0 -1 620 -6.6043086349964142e-02</internalNodes>
          <leafValues>
            3.5735103487968445e-01 -9.2748060822486877e-02</leafValues></_>
        <_>
          <internalNodes>
            0 -1 27 -2.6589330285787582e-02</internalNodes>
          <leafValues>
            3.0603706836700439e-01 -1.0301371663808823e-01</leafValues></_>
        <_>
          <internalNodes>
            0 -1 101 2.5829253718256950e-02</internalNodes>
          <leafValues>
            -1.1991165578365326e-01 2.5631827116012573e-01</leafValues></_>
        <_>
          <internalNodes>
            0 -1 775 4.9114617286249995e-04</internalNodes>
          <leafValues>
            6.5847866237163544e-02 -3.4036001563072205e-01</leafValues></_>
        <_>
          <internalNodes>
            0 -1 390 3.6340099759399891e-03</internalNodes>
          <leafValues>
            -7.9520627856254578e-02 2.9022672772407532e-01</leafValues></_>
        <_>
          <internalNodes>
            0 -1 413 -5.0706751644611359e-03</internalNodes>
          <leafValues>
            -4.7194689512252808e-01 5.0781726837158203e-02</leafValues></_>
        <_>
          <internalNodes>
            0 -1 441 -1.3425713405013084e-03</internalNodes>
          <leafValues>
            -3.5334953665733337e-01 6.4995825290679932e-02</leafValues></_>
        <_>
          <internalNodes>
            0 -1 757 2.7394613716751337e-03</internalNodes>
          <leafValues>
            -8.6179822683334351e-02 2.9092618823051453e-01</leafValues></_>
        <_>
          <internalNodes>
            0 -1 752 -7.2325635701417923e-03</internalNodes>
          <leafValues>
            3.0962881445884705e-01 -6.5395042300224304e-02</leafValues></_>
        <_>
          <internalNodes>
            0 -1 415 -3.8293856196105480e-03</internalNodes>
          <leafValues>
            2.5149223208427429e-01 -8.9722707867622375e-02</leafValues></_>
        <_>
          <internalNodes>
            0 -1 708 7.6376465149223804e-03</internalNodes>
          <leafValues>
            -1.0256332159042358e-01 2.2539927065372467e-01</leafValues></_>
        <_>
          <internalNodes>
            0 -1 197 3.2343149185180664e-01</internalNodes>
          <leafValues>
            -5.1552124321460724e-02 4.5469939708709717e-01</leafValues></_>
        <_>
          <internalNodes>
            0 -1 279 -3.1844794750213623e-02</internalNodes>
          <leafValues>
            4.0754774212837219e-01 -4.9048613756895065e-02</leafValues></_>
        <_>
          <internalNodes>
            0 -1 245 7.1961674839258194e-03</internalNodes>
          <leafValues>
            -8.1207044422626495e-02 2.7593737840652466e-01</leafValues></_>
        <_>
          <internalNodes>
            0 -1 574 2.9066014103591442e-03</internalNodes>
          <leafValues>
            5.4464794695377350e-02 -3.8340881466865540e-01</leafValues></_>
        <_>
          <internalNodes>
            0 -1 21 -3.1380869913846254e-03</internalNodes>
          <leafValues>
            -5.1531213521957397e-01 4.2111273854970932e-02</leafValues></_>
        <_>
          <internalNodes>
            0 -1 517 -1.0189050808548927e-03</internalNodes>
          <leafValues>
            -3.1812191009521484e-01 6.9734379649162292e-02</leafValues></_>
        <_>
          <internalNodes>
            0 -1 403 1.6106280963867903e-03</internalNodes>
          <leafValues>
            -6.5966896712779999e-02 3.3214449882507324e-01</leafValues></_>
        <_>
          <internalNodes>
            0 -1 134 -2.6085355784744024e-03</internalNodes>
          <leafValues>
            2.8474316000938416e-01 -7.6956018805503845e-02</leafValues></_>
        <_>
          <internalNodes>
            0 -1 514 1.3885322958230972e-02</internalNodes>
          <leafValues>
            3.3377148211002350e-02 -6.2749308347702026e-01</leafValues></_>
        <_>
          <internalNodes>
            0 -1 690 -4.0687322616577148e-02</internalNodes>
          <leafValues>
            -5.7953947782516479e-01 3.4876629710197449e-02</leafValues></_>
        <_>
          <internalNodes>
            0 -1 180 3.2482452224940062e-03</internalNodes>
          <leafValues>
            -1.0044232010841370e-01 2.3223039507865906e-01</leafValues></_>
        <_>
          <internalNodes>
            0 -1 637 6.2530934810638428e-03</internalNodes>
          <leafValues>
            -9.2767909169197083e-02 2.1098166704177856e-01</leafValues></_>
        <_>
          <internalNodes>
            0 -1 721 -4.6109161339700222e-03</internalNodes>
          <leafValues>
            -5.4043376445770264e-01 3.9121851325035095e-02</leafValues></_>
        <_>
          <internalNodes>
            0 -1 654 -1.5957303112372756e-03</internalNodes>
          <leafValues>
            2.6929733157157898e-01 -7.7764078974723816e-02</leafValues></_>
        <_>
          <internalNodes>
            0 -1 601 1.0674897930584848e-04</internalNodes>
          <leafValues>
            1.0307648032903671e-01 -1.9021508097648621e-01</leafValues></_>
        <_>
          <internalNodes>
            0 -1 276 1.9010123796761036e-03</internalNodes>
          <leafValues>
            -9.5989286899566650e-02 2.2002348303794861e-01</leafValues></_>
        <_>
          <internalNodes>
            0 -1 177 -8.0460980534553528e-03</internalNodes>
          <leafValues>
            1.9734893739223480e-01 -1.0319343209266663e-01</leafValues></_>
        <_>
          <internalNodes>
            0 -1 606 -3.2040715450420976e-04</internalNodes>
          <leafValues>
            1.3750442862510681e-01 -1.5125966072082520e-01</leafValues></_>
        <_>
          <internalNodes>
            0 -1 506 1.8748782575130463e-02</internalNodes>
          <leafValues>
            3.0198916792869568e-02 -6.3166767358779907e-01</leafValues></_>
        <_>
          <internalNodes>
            0 -1 375 -1.6846546530723572e-01</internalNodes>
          <leafValues>
            4.5537897944450378e-01 -4.6540979295969009e-02</leafValues></_>
        <_>
          <internalNodes>
            0 -1 304 1.1980794370174408e-01</internalNodes>
          <leafValues>
            -1.1541382223367691e-01 2.2015172243118286e-01</leafValues></_>
        <_>
          <internalNodes>
            0 -1 55 9.5754526555538177e-03</internalNodes>
          <leafValues>
            -4.4280074536800385e-02 4.8082104325294495e-01</leafValues></_>
        <_>
          <internalNodes>
            0 -1 632 2.2712040226906538e-03</internalNodes>
          <leafValues>
            -6.8618290126323700e-02 2.7795797586441040e-01</leafValues></_>
        <_>
          <internalNodes>
            0 -1 783 1.1181918671354651e-04</internalNodes>
          <leafValues>
            1.0271599888801575e-01 -2.2129639983177185e-01</leafValues></_>
        <_>
          <internalNodes>
            0 -1 612 -4.1262586601078510e-03</internalNodes>
          <leafValues>
            -5.7615262269973755e-01 3.3415134996175766e-02</leafValues></_>
        <_>
          <internalNodes>
            0 -1 745 1.6917502507567406e-03</internalNodes>
          <leafValues>
            -5.8465123176574707e-02 3.6538413166999817e-01</leafValues></_>
        <_>
          <internalNodes>
            0 -1 57 -3.4743871074169874e-03</internalNodes>
          <leafValues>
            -5.8053618669509888e-01 3.5071860998868942e-02</leafValues></_>
        <_>
          <internalNodes>
            0 -1 37 -9.0914182364940643e-03</internalNodes>
          <leafValues>
            3.1231999397277832e-01 -6.2761895358562469e-02</leafValues></_>
        <_>
          <internalNodes>
            0 -1 200 8.3192594349384308e-02</internalNodes>
          <leafValues>
            -1.1617469042539597e-01 1.8838062882423401e-01</leafValues></_>
        <_>
          <internalNodes>
            0 -1 392 -3.2990290783345699e-03</internalNodes>
          <leafValues>
            2.3706118762493134e-01 -1.0436257719993591e-01</leafValues></_>
        <_>
          <internalNodes>
            0 -1 308 -4.2422693222761154e-03</internalNodes>
          <leafValues>
            1.3925014436244965e-01 -1.4590801298618317e-01</leafValues></_>
        <_>
          <internalNodes>
            0 -1 344 -1.9954224117100239e-03</internalNodes>
          <leafValues>
            1.7330384254455566e-01 -1.1336062848567963e-01</leafValues></_>
        <_>
          <internalNodes>
            0 -1 335 3.2873980235308409e-03</internalNodes>
          <leafValues>
            4.0184848010540009e-02 -4.9784392118453979e-01</leafValues></_>
        <_>
          <internalNodes>
            0 -1 587 -1.8815917428582907e-03</internalNodes>
          <leafValues>
            2.0015913248062134e-01 -9.8743654787540436e-02</leafValues></_>
        <_>
          <internalNodes>
            0 -1 605 1.4594281092286110e-03</internalNodes>
          <leafValues>
            -8.9907169342041016e-02 2.0718981325626373e-01</leafValues></_>
        <_>
          <internalNodes>
            0 -1 607 6.4150852267630398e-05</internalNodes>
          <leafValues>
            -1.1957985907793045e-01 1.6686911880970001e-01</leafValues></_>
        <_>
          <internalNodes>
            0 -1 514 -9.7011849284172058e-03</internalNodes>
          <leafValues>
            -4.4803702831268311e-01 4.2844217270612717e-02</leafValues></_>
        <_>
          <internalNodes>
            0 -1 268 5.9276752173900604e-02</internalNodes>
          <leafValues>
            3.3650860190391541e-02 -5.2716428041458130e-01</leafValues></_>
        <_>
          <internalNodes>
            0 -1 667 -2.7368541806936264e-02</internalNodes>
          <leafValues>
            2.7223613858222961e-01 -6.8357847630977631e-02</leafValues></_>
        <_>
          <internalNodes>
            0 -1 652 -4.9796951934695244e-03</internalNodes>
          <leafValues>
            1.8361541628837585e-01 -1.0570856928825378e-01</leafValues></_>
        <_>
          <internalNodes>
            0 -1 650 1.6534887254238129e-03</internalNodes>
          <leafValues>
            -8.7063893675804138e-02 2.1960452198982239e-01</leafValues></_>
        <_>
          <internalNodes>
            0 -1 450 4.5991588383913040e-02</internalNodes>
          <leafValues>
            3.2088454812765121e-02 -5.9787541627883911e-01</leafValues></_>
        <_>
          <internalNodes>
            0 -1 789 -3.9967400953173637e-03</internalNodes>
          <leafValues>
            -3.2694712281227112e-01 5.4660625755786896e-02</leafValues></_></weakClassifiers></_>
    <!-- stage 10 -->
    <_>
      <maxWeakCount>68</maxWeakCount>
      <stageThreshold>-6.7409074306488037e-01</stageThreshold>
      <weakClassifiers>
        <_>
          <internalNodes>
            0 -1 474 -1.5807874500751495e-02</internalNodes>
          <leafValues>
            4.8538962006568909e-01 7.1601942181587219e-02</leafValues></_>
        <_>
          <internalNodes>
            0 -1 622 -3.1544372439384460e-02</internalNodes>
          <leafValues>
            3.0397477746009827e-01 -1.3087156414985657e-01</leafValues></_>
        <_>
          <internalNodes>
            0 -1 132 2.4583971127867699e-02</internalNodes>
          <leafValues>
            -8.6521238088607788e-02 3.8222238421440125e-01</leafValues></_>
        <_>
          <internalNodes>
            0 -1 565 -7.8377760946750641e-03</internalNodes>
          <leafValues>
            1.8505980074405670e-01 -1.5052910149097443e-01</leafValues></_>
        <_>
          <internalNodes>
            0 -1 219 -4.5082340948283672e-03</internalNodes>
          <leafValues>
            3.2354909181594849e-01 -8.5501052439212799e-02</leafValues></_>
        <_>
          <internalNodes>
            0 -1 69 -1.8065085168927908e-03</internalNodes>
          <leafValues>
            1.9995716214179993e-01 -1.1468480527400970e-01</leafValues></_>
        <_>
          <internalNodes>
            0 -1 81 7.4306223541498184e-04</internalNodes>
          <leafValues>
            -9.4677872955799103e-02 2.3592662811279297e-01</leafValues></_>
        <_>
          <internalNodes>
            0 -1 494 -7.4465824291110039e-03</internalNodes>
          <leafValues>
            1.7860604822635651e-01 -1.2128046900033951e-01</leafValues></_>
        <_>
          <internalNodes>
            0 -1 542 3.4227065742015839e-02</internalNodes>
          <leafValues>
            3.7320237606763840e-02 -6.7458534240722656e-01</leafValues></_>
        <_>
          <internalNodes>
            0 -1 384 1.4307541772723198e-02</internalNodes>
          <leafValues>
            -8.3349458873271942e-02 2.8184354305267334e-01</leafValues></_>
        <_>
          <internalNodes>
            0 -1 460 7.6302081346511841e-02</internalNodes>
          <leafValues>
            -7.9694539308547974e-02 3.0093514919281006e-01</leafValues></_>
        <_>
          <internalNodes>
            0 -1 388 3.6591566167771816e-03</internalNodes>
          <leafValues>
            -1.0000263899564743e-01 2.3344124853610992e-01</leafValues></_>
        <_>
          <internalNodes>
            0 -1 569 -3.7701738619944081e-05</internalNodes>
          <leafValues>
            1.2313096225261688e-01 -2.0432049036026001e-01</leafValues></_>
        <_>
          <internalNodes>
            0 -1 139 1.7093865200877190e-02</internalNodes>
          <leafValues>
            3.1791534274816513e-02 -5.8180212974548340e-01</leafValues></_>
        <_>
          <internalNodes>
            0 -1 660 -1.0269545949995518e-02</internalNodes>
          <leafValues>
            1.9610215723514557e-01 -1.2361267209053040e-01</leafValues></_>
        <_>
          <internalNodes>
            0 -1 751 -4.2944937944412231e-02</internalNodes>
          <leafValues>
            -3.4991374611854553e-01 6.1363290995359421e-02</leafValues></_>
        <_>
          <internalNodes>
            0 -1 96 1.1522541753947735e-02</internalNodes>
          <leafValues>
            -7.5906850397586823e-02 2.7552402019500732e-01</leafValues></_>
        <_>
          <internalNodes>
            0 -1 113 -2.4083857424557209e-03</internalNodes>
          <leafValues>
            1.7205178737640381e-01 -1.4237903058528900e-01</leafValues></_>
        <_>
          <internalNodes>
            0 -1 169 1.1689513921737671e-03</internalNodes>
          <leafValues>
            -8.4761351346969604e-02 2.3409672081470490e-01</leafValues></_>
        <_>
          <internalNodes>
            0 -1 581 -3.1902100890874863e-03</internalNodes>
          <leafValues>
            -3.8173976540565491e-01 6.1851907521486282e-02</leafValues></_>
        <_>
          <internalNodes>
            0 -1 320 -2.3745727958157659e-04</internalNodes>
          <leafValues>
            1.6381113231182098e-01 -1.2502188980579376e-01</leafValues></_>
        <_>
          <internalNodes>
            0 -1 60 3.0867997556924820e-03</internalNodes>
          <leafValues>
            4.7493286430835724e-02 -4.3491944670677185e-01</leafValues></_>
        <_>
          <internalNodes>
            0 -1 628 -2.6973657077178359e-04</internalNodes>
          <leafValues>
            1.5552526712417603e-01 -1.2855072319507599e-01</leafValues></_>
        <_>
          <internalNodes>
            0 -1 12 -8.5624322295188904e-02</internalNodes>
          <leafValues>
            -4.9227386713027954e-01 4.0513955056667328e-02</leafValues></_>
        <_>
          <internalNodes>
            0 -1 387 3.1065875664353371e-03</internalNodes>
          <leafValues>
            2.1012110635638237e-02 -9.6300148963928223e-01</leafValues></_>
        <_>
          <internalNodes>
            0 -1 687 3.9470801129937172e-04</internalNodes>
          <leafValues>
            -1.0727296769618988e-01 1.8918032944202423e-01</leafValues></_>
        <_>
          <internalNodes>
            0 -1 100 6.1996805015951395e-04</internalNodes>
          <leafValues>
            -9.7903572022914886e-02 2.1004252135753632e-01</leafValues></_>
        <_>
          <internalNodes>
            0 -1 302 -3.0150543898344040e-02</internalNodes>
          <leafValues>
            -6.4081859588623047e-01 3.1617779284715652e-02</leafValues></_>
        <_>
          <internalNodes>
            0 -1 488 -2.3667729692533612e-04</internalNodes>
          <leafValues>
            2.0728453993797302e-01 -9.8767131567001343e-02</leafValues></_>
        <_>
          <internalNodes>
            0 -1 351 -4.4512197375297546e-02</internalNodes>
          <leafValues>
            -4.6826606988906860e-01 4.6540386974811554e-02</leafValues></_>
        <_>
          <internalNodes>
            0 -1 13 -5.2458947896957397e-01</internalNodes>
          <leafValues>
            6.0129565000534058e-01 -3.3865489065647125e-02</leafValues></_>
        <_>
          <internalNodes>
            0 -1 727 -2.4704469833523035e-03</internalNodes>
          <leafValues>
            2.1344721317291260e-01 -9.1008029878139496e-02</leafValues></_>
        <_>
          <internalNodes>
            0 -1 728 8.8406907161697745e-04</internalNodes>
          <leafValues>
            -1.0108223557472229e-01 2.3163226246833801e-01</leafValues></_>
        <_>
          <internalNodes>
            0 -1 108 1.9700467586517334e-01</internalNodes>
          <leafValues>
            -6.0057882219552994e-02 3.2019481062889099e-01</leafValues></_>
        <_>
          <internalNodes>
            0 -1 168 -2.7407702873460948e-05</internalNodes>
          <leafValues>
            1.5414720773696899e-01 -1.3786312937736511e-01</leafValues></_>
        <_>
          <internalNodes>
            0 -1 145 5.6111579760909081e-03</internalNodes>
          <leafValues>
            3.3109672367572784e-02 -6.6369211673736572e-01</leafValues></_>
        <_>
          <internalNodes>
            0 -1 404 -3.5223673330619931e-04</internalNodes>
          <leafValues>
            2.2630728781223297e-01 -8.4510311484336853e-02</leafValues></_>
        <_>
          <internalNodes>
            0 -1 360 4.2314565507695079e-04</internalNodes>
          <leafValues>
            -1.0501616448163986e-01 1.8573442101478577e-01</leafValues></_>
        <_>
          <internalNodes>
            0 -1 293 -3.2830194104462862e-03</internalNodes>
          <leafValues>
            2.3597918450832367e-01 -7.8631468117237091e-02</leafValues></_>
        <_>
          <internalNodes>
            0 -1 0 -5.8848725166171789e-04</internalNodes>
          <leafValues>
            -2.7722698450088501e-01 6.6045552492141724e-02</leafValues></_>
        <_>
          <internalNodes>
            0 -1 317 2.6886834530159831e-04</internalNodes>
          <leafValues>
            -1.1225784569978714e-01 1.6754412651062012e-01</leafValues></_>
        <_>
          <internalNodes>
            0 -1 0 5.4941896814852953e-04</internalNodes>
          <leafValues>
            5.7615149766206741e-02 -3.3413380384445190e-01</leafValues></_>
        <_>
          <internalNodes>
            0 -1 122 -1.7288822680711746e-02</internalNodes>
          <leafValues>
            -7.1219134330749512e-01 2.1366091445088387e-02</leafValues></_>
        <_>
          <internalNodes>
            0 -1 736 2.5386465131305158e-04</internalNodes>
          <leafValues>
            -9.5535002648830414e-02 1.9322130084037781e-01</leafValues></_>
        <_>
          <internalNodes>
            0 -1 263 -3.3277301117777824e-03</internalNodes>
          <leafValues>
            -4.4398823380470276e-01 4.3719384819269180e-02</leafValues></_>
        <_>
          <internalNodes>
            0 -1 608 -2.7877910179086030e-04</internalNodes>
          <leafValues>
            2.3080180585384369e-01 -8.4699794650077820e-02</leafValues></_>
        <_>
          <internalNodes>
            0 -1 608 1.0408443631604314e-04</internalNodes>
          <leafValues>
            -1.1755763739347458e-01 1.9411462545394897e-01</leafValues></_>
        <_>
          <internalNodes>
            0 -1 700 -2.3301504552364349e-02</internalNodes>
          <leafValues>
            -6.4473623037338257e-01 3.2519210129976273e-02</leafValues></_>
        <_>
          <internalNodes>
            0 -1 675 -1.3982891105115414e-03</internalNodes>
          <leafValues>
            1.7259377241134644e-01 -1.0065649449825287e-01</leafValues></_>
        <_>
          <internalNodes>
            0 -1 731 -1.8898719921708107e-02</internalNodes>
          <leafValues>
            -3.1176105141639709e-01 5.7037577033042908e-02</leafValues></_>
        <_>
          <internalNodes>
            0 -1 616 -6.7778332158923149e-03</internalNodes>
          <leafValues>
            1.9344983994960785e-01 -1.0555987805128098e-01</leafValues></_>
        <_>
          <internalNodes>
            0 -1 380 -6.3273295760154724e-02</internalNodes>
          <leafValues>
            -7.7208155393600464e-01 2.2048108279705048e-02</leafValues></_>
        <_>
          <internalNodes>
